digraph Tree {
node [shape=box, style="filled", color="black"] ;
0 [label="37 <= 0.5\ngini = 0.9\nsamples = 1257\nvalue = [127, 123, 128, 126, 125, 123, 134, 123, 126, 122]", fillcolor="#3c39e501"] ;
1 [label="43 <= 5.0\ngini = 0.533\nsamples = 191\nvalue = [124, 0, 2, 0, 4, 18, 4, 0, 3, 36]", fillcolor="#e5813991"] ;
0 -> 1 [labeldistance=2.5, labelangle=45, headlabel="True"] ;
2 [label="22 <= 6.5\ngini = 0.414\nsamples = 50\nvalue = [0, 0, 1, 0, 0, 13, 0, 0, 0, 36]", fillcolor="#e539589f"] ;
1 -> 2 ;
3 [label="39 <= 3.5\ngini = 0.255\nsamples = 14\nvalue = [0, 0, 1, 0, 0, 12, 0, 0, 0, 1]", fillcolor="#399de5d8"] ;
2 -> 3 ;
4 [label="35 <= 0.5\ngini = 0.5\nsamples = 2\nvalue = [0, 0, 1, 0, 0, 0, 0, 0, 0, 1]", fillcolor="#7be53900"] ;
3 -> 4 ;
5 [label="gini = 0.0\nsamples = 1\nvalue = [0, 0, 0, 0, 0, 0, 0, 0, 0, 1]", fillcolor="#e53958ff"] ;
4 -> 5 ;
6 [label="gini = 0.0\nsamples = 1\nvalue = [0, 0, 1, 0, 0, 0, 0, 0, 0, 0]", fillcolor="#7be539ff"] ;
4 -> 6 ;
7 [label="gini = 0.0\nsamples = 12\nvalue = [0, 0, 0, 0, 0, 12, 0, 0, 0, 0]", fillcolor="#399de5ff"] ;
3 -> 7 ;
8 [label="34 <= 1.5\ngini = 0.054\nsamples = 36\nvalue = [0, 0, 0, 0, 0, 1, 0, 0, 0, 35]", fillcolor="#e53958f8"] ;
2 -> 8 ;
9 [label="gini = 0.0\nsamples = 35\nvalue = [0, 0, 0, 0, 0, 0, 0, 0, 0, 35]", fillcolor="#e53958ff"] ;
8 -> 9 ;
10 [label="gini = 0.0\nsamples = 1\nvalue = [0, 0, 0, 0, 0, 1, 0, 0, 0, 0]", fillcolor="#399de5ff"] ;
8 -> 10 ;
11 [label="22 <= 0.5\ngini = 0.223\nsamples = 141\nvalue = [124, 0, 1, 0, 4, 5, 4, 0, 3, 0]", fillcolor="#e58139df"] ;
1 -> 11 ;
12 [label="10 <= 3.5\ngini = 0.66\nsamples = 10\nvalue = [0, 0, 0, 0, 3, 4, 3, 0, 0, 0]", fillcolor="#399de524"] ;
11 -> 12 ;
13 [label="46 <= 11.5\ngini = 0.5\nsamples = 6\nvalue = [0, 0, 0, 0, 3, 0, 3, 0, 0, 0]", fillcolor="#39e5c500"] ;
12 -> 13 ;
14 [label="gini = 0.0\nsamples = 3\nvalue = [0, 0, 0, 0, 0, 0, 3, 0, 0, 0]", fillcolor="#3c39e5ff"] ;
13 -> 14 ;
15 [label="gini = 0.0\nsamples = 3\nvalue = [0, 0, 0, 0, 3, 0, 0, 0, 0, 0]", fillcolor="#39e5c5ff"] ;
13 -> 15 ;
16 [label="gini = 0.0\nsamples = 4\nvalue = [0, 0, 0, 0, 0, 4, 0, 0, 0, 0]", fillcolor="#399de5ff"] ;
12 -> 16 ;
17 [label="29 <= 4.5\ngini = 0.103\nsamples = 131\nvalue = [124, 0, 1, 0, 1, 1, 1, 0, 3, 0]", fillcolor="#e58139f1"] ;
11 -> 17 ;
18 [label="64 <= 1.5\ngini = 0.031\nsamples = 126\nvalue = [124, 0, 1, 0, 1, 0, 0, 0, 0, 0]", fillcolor="#e58139fb"] ;
17 -> 18 ;
19 [label="60 <= 4.5\ngini = 0.016\nsamples = 125\nvalue = [124, 0, 0, 0, 1, 0, 0, 0, 0, 0]", fillcolor="#e58139fd"] ;
18 -> 19 ;
20 [label="gini = 0.0\nsamples = 1\nvalue = [0, 0, 0, 0, 1, 0, 0, 0, 0, 0]", fillcolor="#39e5c5ff"] ;
19 -> 20 ;
21 [label="gini = 0.0\nsamples = 124\nvalue = [124, 0, 0, 0, 0, 0, 0, 0, 0, 0]", fillcolor="#e58139ff"] ;
19 -> 21 ;
22 [label="gini = 0.0\nsamples = 1\nvalue = [0, 0, 1, 0, 0, 0, 0, 0, 0, 0]", fillcolor="#7be539ff"] ;
18 -> 22 ;
23 [label="38 <= 6.0\ngini = 0.56\nsamples = 5\nvalue = [0, 0, 0, 0, 0, 1, 1, 0, 3, 0]", fillcolor="#e539c07f"] ;
17 -> 23 ;
24 [label="gini = 0.0\nsamples = 3\nvalue = [0, 0, 0, 0, 0, 0, 0, 0, 3, 0]", fillcolor="#e539c0ff"] ;
23 -> 24 ;
25 [label="39 <= 5.0\ngini = 0.5\nsamples = 2\nvalue = [0, 0, 0, 0, 0, 1, 1, 0, 0, 0]", fillcolor="#399de500"] ;
23 -> 25 ;
26 [label="gini = 0.0\nsamples = 1\nvalue = [0, 0, 0, 0, 0, 1, 0, 0, 0, 0]", fillcolor="#399de5ff"] ;
25 -> 26 ;
27 [label="gini = 0.0\nsamples = 1\nvalue = [0, 0, 0, 0, 0, 0, 1, 0, 0, 0]", fillcolor="#3c39e5ff"] ;
25 -> 27 ;
28 [label="22 <= 0.5\ngini = 0.888\nsamples = 1066\nvalue = [3, 123, 126, 126, 121, 105, 130, 123, 123, 86]", fillcolor="#3c39e501"] ;
0 -> 28 [labeldistance=2.5, labelangle=-45, headlabel="False"] ;
29 [label="43 <= 8.5\ngini = 0.736\nsamples = 330\nvalue = [0, 29, 35, 8, 24, 98, 128, 5, 3, 0]", fillcolor="#3c39e521"] ;
28 -> 29 ;
30 [label="6 <= 1.5\ngini = 0.634\nsamples = 169\nvalue = [0, 24, 27, 8, 5, 95, 3, 4, 3, 0]", fillcolor="#399de57a"] ;
29 -> 30 ;
31 [label="10 <= 2.5\ngini = 0.729\nsamples = 72\nvalue = [0, 24, 27, 8, 3, 2, 3, 3, 2, 0]", fillcolor="#7be53910"] ;
30 -> 31 ;
32 [label="47 <= 0.5\ngini = 0.597\nsamples = 39\nvalue = [0, 24, 3, 2, 3, 1, 3, 2, 1, 0]", fillcolor="#e2e53995"] ;
31 -> 32 ;
33 [label="28 <= 7.0\ngini = 0.253\nsamples = 28\nvalue = [0, 24, 3, 0, 0, 0, 0, 1, 0, 0]", fillcolor="#e2e539d6"] ;
32 -> 33 ;
34 [label="gini = 0.0\nsamples = 3\nvalue = [0, 0, 3, 0, 0, 0, 0, 0, 0, 0]", fillcolor="#7be539ff"] ;
33 -> 34 ;
35 [label="20 <= 12.5\ngini = 0.077\nsamples = 25\nvalue = [0, 24, 0, 0, 0, 0, 0, 1, 0, 0]", fillcolor="#e2e539f4"] ;
33 -> 35 ;
36 [label="gini = 0.0\nsamples = 1\nvalue = [0, 0, 0, 0, 0, 0, 0, 1, 0, 0]", fillcolor="#a339e5ff"] ;
35 -> 36 ;
37 [label="gini = 0.0\nsamples = 24\nvalue = [0, 24, 0, 0, 0, 0, 0, 0, 0, 0]", fillcolor="#e2e539ff"] ;
35 -> 37 ;
38 [label="39 <= 8.0\ngini = 0.793\nsamples = 11\nvalue = [0, 0, 0, 2, 3, 1, 3, 1, 1, 0]", fillcolor="#39e5c500"] ;
32 -> 38 ;
39 [label="29 <= 9.5\ngini = 0.75\nsamples = 8\nvalue = [0, 0, 0, 2, 0, 1, 3, 1, 1, 0]", fillcolor="#3c39e52a"] ;
38 -> 39 ;
40 [label="gini = 0.0\nsamples = 3\nvalue = [0, 0, 0, 0, 0, 0, 3, 0, 0, 0]", fillcolor="#3c39e5ff"] ;
39 -> 40 ;
41 [label="35 <= 5.5\ngini = 0.72\nsamples = 5\nvalue = [0, 0, 0, 2, 0, 1, 0, 1, 1, 0]", fillcolor="#39e55e40"] ;
39 -> 41 ;
42 [label="gini = 0.0\nsamples = 2\nvalue = [0, 0, 0, 2, 0, 0, 0, 0, 0, 0]", fillcolor="#39e55eff"] ;
41 -> 42 ;
43 [label="63 <= 0.5\ngini = 0.667\nsamples = 3\nvalue = [0, 0, 0, 0, 0, 1, 0, 1, 1, 0]", fillcolor="#399de500"] ;
41 -> 43 ;
44 [label="39 <= 5.5\ngini = 0.5\nsamples = 2\nvalue = [0, 0, 0, 0, 0, 1, 0, 1, 0, 0]", fillcolor="#399de500"] ;
43 -> 44 ;
45 [label="gini = 0.0\nsamples = 1\nvalue = [0, 0, 0, 0, 0, 1, 0, 0, 0, 0]", fillcolor="#399de5ff"] ;
44 -> 45 ;
46 [label="gini = 0.0\nsamples = 1\nvalue = [0, 0, 0, 0, 0, 0, 0, 1, 0, 0]", fillcolor="#a339e5ff"] ;
44 -> 46 ;
47 [label="gini = 0.0\nsamples = 1\nvalue = [0, 0, 0, 0, 0, 0, 0, 0, 1, 0]", fillcolor="#e539c0ff"] ;
43 -> 47 ;
48 [label="gini = 0.0\nsamples = 3\nvalue = [0, 0, 0, 0, 3, 0, 0, 0, 0, 0]", fillcolor="#39e5c5ff"] ;
38 -> 48 ;
49 [label="38 <= 4.0\ngini = 0.435\nsamples = 33\nvalue = [0, 0, 24, 6, 0, 1, 0, 1, 1, 0]", fillcolor="#7be539aa"] ;
31 -> 49 ;
50 [label="gini = 0.0\nsamples = 24\nvalue = [0, 0, 24, 0, 0, 0, 0, 0, 0, 0]", fillcolor="#7be539ff"] ;
49 -> 50 ;
51 [label="38 <= 14.5\ngini = 0.519\nsamples = 9\nvalue = [0, 0, 0, 6, 0, 1, 0, 1, 1, 0]", fillcolor="#39e55e9f"] ;
49 -> 51 ;
52 [label="26 <= 4.0\ngini = 0.667\nsamples = 3\nvalue = [0, 0, 0, 0, 0, 1, 0, 1, 1, 0]", fillcolor="#399de500"] ;
51 -> 52 ;
53 [label="gini = 0.0\nsamples = 1\nvalue = [0, 0, 0, 0, 0, 0, 0, 1, 0, 0]", fillcolor="#a339e5ff"] ;
52 -> 53 ;
54 [label="52 <= 8.5\ngini = 0.5\nsamples = 2\nvalue = [0, 0, 0, 0, 0, 1, 0, 0, 1, 0]", fillcolor="#399de500"] ;
52 -> 54 ;
55 [label="gini = 0.0\nsamples = 1\nvalue = [0, 0, 0, 0, 0, 1, 0, 0, 0, 0]", fillcolor="#399de5ff"] ;
54 -> 55 ;
56 [label="gini = 0.0\nsamples = 1\nvalue = [0, 0, 0, 0, 0, 0, 0, 0, 1, 0]", fillcolor="#e539c0ff"] ;
54 -> 56 ;
57 [label="gini = 0.0\nsamples = 6\nvalue = [0, 0, 0, 6, 0, 0, 0, 0, 0, 0]", fillcolor="#39e55eff"] ;
51 -> 57 ;
58 [label="19 <= 8.5\ngini = 0.08\nsamples = 97\nvalue = [0, 0, 0, 0, 2, 93, 0, 1, 1, 0]", fillcolor="#399de5f4"] ;
30 -> 58 ;
59 [label="26 <= 1.0\ngini = 0.667\nsamples = 3\nvalue = [0, 0, 0, 0, 1, 0, 0, 1, 1, 0]", fillcolor="#39e5c500"] ;
58 -> 59 ;
60 [label="gini = 0.0\nsamples = 1\nvalue = [0, 0, 0, 0, 0, 0, 0, 1, 0, 0]", fillcolor="#a339e5ff"] ;
59 -> 60 ;
61 [label="20 <= 10.5\ngini = 0.5\nsamples = 2\nvalue = [0, 0, 0, 0, 1, 0, 0, 0, 1, 0]", fillcolor="#39e5c500"] ;
59 -> 61 ;
62 [label="gini = 0.0\nsamples = 1\nvalue = [0, 0, 0, 0, 0, 0, 0, 0, 1, 0]", fillcolor="#e539c0ff"] ;
61 -> 62 ;
63 [label="gini = 0.0\nsamples = 1\nvalue = [0, 0, 0, 0, 1, 0, 0, 0, 0, 0]", fillcolor="#39e5c5ff"] ;
61 -> 63 ;
64 [label="26 <= 14.5\ngini = 0.021\nsamples = 94\nvalue = [0, 0, 0, 0, 1, 93, 0, 0, 0, 0]", fillcolor="#399de5fc"] ;
58 -> 64 ;
65 [label="gini = 0.0\nsamples = 93\nvalue = [0, 0, 0, 0, 0, 93, 0, 0, 0, 0]", fillcolor="#399de5ff"] ;
64 -> 65 ;
66 [label="gini = 0.0\nsamples = 1\nvalue = [0, 0, 0, 0, 1, 0, 0, 0, 0, 0]", fillcolor="#39e5c5ff"] ;
64 -> 66 ;
67 [label="55 <= 2.5\ngini = 0.379\nsamples = 161\nvalue = [0, 5, 8, 0, 19, 3, 125, 1, 0, 0]", fillcolor="#3c39e5be"] ;
29 -> 67 ;
68 [label="11 <= 5.5\ngini = 0.604\nsamples = 32\nvalue = [0, 5, 1, 0, 19, 3, 3, 1, 0, 0]", fillcolor="#39e5c584"] ;
67 -> 68 ;
69 [label="gini = 0.0\nsamples = 17\nvalue = [0, 0, 0, 0, 17, 0, 0, 0, 0, 0]", fillcolor="#39e5c5ff"] ;
68 -> 69 ;
70 [label="46 <= 1.5\ngini = 0.782\nsamples = 15\nvalue = [0, 5, 1, 0, 2, 3, 3, 1, 0, 0]", fillcolor="#e2e5392a"] ;
68 -> 70 ;
71 [label="13 <= 9.5\ngini = 0.278\nsamples = 6\nvalue = [0, 5, 1, 0, 0, 0, 0, 0, 0, 0]", fillcolor="#e2e539cc"] ;
70 -> 71 ;
72 [label="gini = 0.0\nsamples = 1\nvalue = [0, 0, 1, 0, 0, 0, 0, 0, 0, 0]", fillcolor="#7be539ff"] ;
71 -> 72 ;
73 [label="gini = 0.0\nsamples = 5\nvalue = [0, 5, 0, 0, 0, 0, 0, 0, 0, 0]", fillcolor="#e2e539ff"] ;
71 -> 73 ;
74 [label="6 <= 10.0\ngini = 0.716\nsamples = 9\nvalue = [0, 0, 0, 0, 2, 3, 3, 1, 0, 0]", fillcolor="#399de500"] ;
70 -> 74 ;
75 [label="61 <= 13.5\ngini = 0.611\nsamples = 6\nvalue = [0, 0, 0, 0, 2, 0, 3, 1, 0, 0]", fillcolor="#3c39e540"] ;
74 -> 75 ;
76 [label="10 <= 5.0\ngini = 0.444\nsamples = 3\nvalue = [0, 0, 0, 0, 2, 0, 0, 1, 0, 0]", fillcolor="#39e5c57f"] ;
75 -> 76 ;
77 [label="gini = 0.0\nsamples = 2\nvalue = [0, 0, 0, 0, 2, 0, 0, 0, 0, 0]", fillcolor="#39e5c5ff"] ;
76 -> 77 ;
78 [label="gini = 0.0\nsamples = 1\nvalue = [0, 0, 0, 0, 0, 0, 0, 1, 0, 0]", fillcolor="#a339e5ff"] ;
76 -> 78 ;
79 [label="gini = 0.0\nsamples = 3\nvalue = [0, 0, 0, 0, 0, 0, 3, 0, 0, 0]", fillcolor="#3c39e5ff"] ;
75 -> 79 ;
80 [label="gini = 0.0\nsamples = 3\nvalue = [0, 0, 0, 0, 0, 3, 0, 0, 0, 0]", fillcolor="#399de5ff"] ;
74 -> 80 ;
81 [label="2 <= 1.0\ngini = 0.103\nsamples = 129\nvalue = [0, 0, 7, 0, 0, 0, 122, 0, 0, 0]", fillcolor="#3c39e5f0"] ;
67 -> 81 ;
82 [label="gini = 0.0\nsamples = 122\nvalue = [0, 0, 0, 0, 0, 0, 122, 0, 0, 0]", fillcolor="#3c39e5ff"] ;
81 -> 82 ;
83 [label="gini = 0.0\nsamples = 7\nvalue = [0, 0, 7, 0, 0, 0, 0, 0, 0, 0]", fillcolor="#7be539ff"] ;
81 -> 83 ;
84 [label="61 <= 5.5\ngini = 0.859\nsamples = 736\nvalue = [3, 94, 91, 118, 97, 7, 2, 118, 120, 86]", fillcolor="#e539c001"] ;
28 -> 84 ;
85 [label="27 <= 11.5\ngini = 0.456\nsamples = 135\nvalue = [0, 8, 2, 3, 13, 2, 0, 98, 1, 8]", fillcolor="#a339e5b2"] ;
84 -> 85 ;
86 [label="54 <= 3.5\ngini = 0.186\nsamples = 101\nvalue = [0, 2, 2, 3, 2, 0, 0, 91, 1, 0]", fillcolor="#a339e5e5"] ;
85 -> 86 ;
87 [label="5 <= 3.0\ngini = 0.082\nsamples = 95\nvalue = [0, 0, 0, 1, 2, 0, 0, 91, 1, 0]", fillcolor="#a339e5f4"] ;
86 -> 87 ;
88 [label="gini = 0.0\nsamples = 2\nvalue = [0, 0, 0, 0, 2, 0, 0, 0, 0, 0]", fillcolor="#39e5c5ff"] ;
87 -> 88 ;
89 [label="18 <= 9.0\ngini = 0.042\nsamples = 93\nvalue = [0, 0, 0, 1, 0, 0, 0, 91, 1, 0]", fillcolor="#a339e5f9"] ;
87 -> 89 ;
90 [label="30 <= 0.5\ngini = 0.022\nsamples = 92\nvalue = [0, 0, 0, 1, 0, 0, 0, 91, 0, 0]", fillcolor="#a339e5fc"] ;
89 -> 90 ;
91 [label="3 <= 12.0\ngini = 0.5\nsamples = 2\nvalue = [0, 0, 0, 1, 0, 0, 0, 1, 0, 0]", fillcolor="#39e55e00"] ;
90 -> 91 ;
92 [label="gini = 0.0\nsamples = 1\nvalue = [0, 0, 0, 0, 0, 0, 0, 1, 0, 0]", fillcolor="#a339e5ff"] ;
91 -> 92 ;
93 [label="gini = 0.0\nsamples = 1\nvalue = [0, 0, 0, 1, 0, 0, 0, 0, 0, 0]", fillcolor="#39e55eff"] ;
91 -> 93 ;
94 [label="gini = 0.0\nsamples = 90\nvalue = [0, 0, 0, 0, 0, 0, 0, 90, 0, 0]", fillcolor="#a339e5ff"] ;
90 -> 94 ;
95 [label="gini = 0.0\nsamples = 1\nvalue = [0, 0, 0, 0, 0, 0, 0, 0, 1, 0]", fillcolor="#e539c0ff"] ;
89 -> 95 ;
96 [label="4 <= 6.0\ngini = 0.667\nsamples = 6\nvalue = [0, 2, 2, 2, 0, 0, 0, 0, 0, 0]", fillcolor="#e2e53900"] ;
86 -> 96 ;
97 [label="gini = 0.0\nsamples = 2\nvalue = [0, 2, 0, 0, 0, 0, 0, 0, 0, 0]", fillcolor="#e2e539ff"] ;
96 -> 97 ;
98 [label="30 <= 4.5\ngini = 0.5\nsamples = 4\nvalue = [0, 0, 2, 2, 0, 0, 0, 0, 0, 0]", fillcolor="#7be53900"] ;
96 -> 98 ;
99 [label="gini = 0.0\nsamples = 2\nvalue = [0, 0, 0, 2, 0, 0, 0, 0, 0, 0]", fillcolor="#39e55eff"] ;
98 -> 99 ;
100 [label="gini = 0.0\nsamples = 2\nvalue = [0, 0, 2, 0, 0, 0, 0, 0, 0, 0]", fillcolor="#7be539ff"] ;
98 -> 100 ;
101 [label="6 <= 1.0\ngini = 0.763\nsamples = 34\nvalue = [0, 6, 0, 0, 11, 2, 0, 7, 0, 8]", fillcolor="#39e5c51d"] ;
85 -> 101 ;
102 [label="13 <= 9.0\ngini = 0.391\nsamples = 13\nvalue = [0, 1, 0, 0, 10, 1, 0, 0, 0, 1]", fillcolor="#39e5c5bf"] ;
101 -> 102 ;
103 [label="gini = 0.0\nsamples = 10\nvalue = [0, 0, 0, 0, 10, 0, 0, 0, 0, 0]", fillcolor="#39e5c5ff"] ;
102 -> 103 ;
104 [label="62 <= 2.5\ngini = 0.667\nsamples = 3\nvalue = [0, 1, 0, 0, 0, 1, 0, 0, 0, 1]", fillcolor="#e2e53900"] ;
102 -> 104 ;
105 [label="43 <= 1.5\ngini = 0.5\nsamples = 2\nvalue = [0, 1, 0, 0, 0, 1, 0, 0, 0, 0]", fillcolor="#e2e53900"] ;
104 -> 105 ;
106 [label="gini = 0.0\nsamples = 1\nvalue = [0, 0, 0, 0, 0, 1, 0, 0, 0, 0]", fillcolor="#399de5ff"] ;
105 -> 106 ;
107 [label="gini = 0.0\nsamples = 1\nvalue = [0, 1, 0, 0, 0, 0, 0, 0, 0, 0]", fillcolor="#e2e539ff"] ;
105 -> 107 ;
108 [label="gini = 0.0\nsamples = 1\nvalue = [0, 0, 0, 0, 0, 0, 0, 0, 0, 1]", fillcolor="#e53958ff"] ;
104 -> 108 ;
109 [label="21 <= 14.5\ngini = 0.717\nsamples = 21\nvalue = [0, 5, 0, 0, 1, 1, 0, 7, 0, 7]", fillcolor="#a339e500"] ;
101 -> 109 ;
110 [label="44 <= 12.5\ngini = 0.613\nsamples = 15\nvalue = [0, 0, 0, 0, 1, 1, 0, 6, 0, 7]", fillcolor="#e539581c"] ;
109 -> 110 ;
111 [label="11 <= 10.5\ngini = 0.545\nsamples = 11\nvalue = [0, 0, 0, 0, 1, 1, 0, 2, 0, 7]", fillcolor="#e539588e"] ;
110 -> 111 ;
112 [label="19 <= 13.5\ngini = 0.444\nsamples = 3\nvalue = [0, 0, 0, 0, 1, 0, 0, 2, 0, 0]", fillcolor="#a339e57f"] ;
111 -> 112 ;
113 [label="gini = 0.0\nsamples = 2\nvalue = [0, 0, 0, 0, 0, 0, 0, 2, 0, 0]", fillcolor="#a339e5ff"] ;
112 -> 113 ;
114 [label="gini = 0.0\nsamples = 1\nvalue = [0, 0, 0, 0, 1, 0, 0, 0, 0, 0]", fillcolor="#39e5c5ff"] ;
112 -> 114 ;
115 [label="39 <= 4.5\ngini = 0.219\nsamples = 8\nvalue = [0, 0, 0, 0, 0, 1, 0, 0, 0, 7]", fillcolor="#e53958db"] ;
111 -> 115 ;
116 [label="gini = 0.0\nsamples = 7\nvalue = [0, 0, 0, 0, 0, 0, 0, 0, 0, 7]", fillcolor="#e53958ff"] ;
115 -> 116 ;
117 [label="gini = 0.0\nsamples = 1\nvalue = [0, 0, 0, 0, 0, 1, 0, 0, 0, 0]", fillcolor="#399de5ff"] ;
115 -> 117 ;
118 [label="gini = 0.0\nsamples = 4\nvalue = [0, 0, 0, 0, 0, 0, 0, 4, 0, 0]", fillcolor="#a339e5ff"] ;
110 -> 118 ;
119 [label="7 <= 0.5\ngini = 0.278\nsamples = 6\nvalue = [0, 5, 0, 0, 0, 0, 0, 1, 0, 0]", fillcolor="#e2e539cc"] ;
109 -> 119 ;
120 [label="gini = 0.0\nsamples = 1\nvalue = [0, 0, 0, 0, 0, 0, 0, 1, 0, 0]", fillcolor="#a339e5ff"] ;
119 -> 120 ;
121 [label="gini = 0.0\nsamples = 5\nvalue = [0, 5, 0, 0, 0, 0, 0, 0, 0, 0]", fillcolor="#e2e539ff"] ;
119 -> 121 ;
122 [label="34 <= 3.5\ngini = 0.844\nsamples = 601\nvalue = [3, 86, 89, 115, 84, 5, 2, 20, 119, 78]", fillcolor="#e539c002"] ;
84 -> 122 ;
123 [label="44 <= 1.5\ngini = 0.812\nsamples = 496\nvalue = [2, 72, 88, 115, 3, 4, 1, 16, 117, 78]", fillcolor="#e539c001"] ;
122 -> 123 ;
124 [label="30 <= 13.5\ngini = 0.645\nsamples = 209\nvalue = [0, 11, 5, 101, 0, 4, 0, 2, 16, 70]", fillcolor="#39e55e39"] ;
123 -> 124 ;
125 [label="35 <= 3.5\ngini = 0.427\nsamples = 133\nvalue = [0, 3, 2, 99, 0, 3, 0, 2, 15, 9]", fillcolor="#39e55eb6"] ;
124 -> 125 ;
126 [label="27 <= 10.0\ngini = 0.187\nsamples = 110\nvalue = [0, 0, 2, 99, 0, 3, 0, 1, 0, 5]", fillcolor="#39e55ee4"] ;
125 -> 126 ;
127 [label="29 <= 7.5\ngini = 0.076\nsamples = 103\nvalue = [0, 0, 2, 99, 0, 1, 0, 0, 0, 1]", fillcolor="#39e55ef5"] ;
126 -> 127 ;
128 [label="gini = 0.0\nsamples = 2\nvalue = [0, 0, 2, 0, 0, 0, 0, 0, 0, 0]", fillcolor="#7be539ff"] ;
127 -> 128 ;
129 [label="20 <= 12.5\ngini = 0.039\nsamples = 101\nvalue = [0, 0, 0, 99, 0, 1, 0, 0, 0, 1]", fillcolor="#39e55efa"] ;
127 -> 129 ;
130 [label="gini = 0.0\nsamples = 99\nvalue = [0, 0, 0, 99, 0, 0, 0, 0, 0, 0]", fillcolor="#39e55eff"] ;
129 -> 130 ;
131 [label="21 <= 14.5\ngini = 0.5\nsamples = 2\nvalue = [0, 0, 0, 0, 0, 1, 0, 0, 0, 1]", fillcolor="#399de500"] ;
129 -> 131 ;
132 [label="gini = 0.0\nsamples = 1\nvalue = [0, 0, 0, 0, 0, 1, 0, 0, 0, 0]", fillcolor="#399de5ff"] ;
131 -> 132 ;
133 [label="gini = 0.0\nsamples = 1\nvalue = [0, 0, 0, 0, 0, 0, 0, 0, 0, 1]", fillcolor="#e53958ff"] ;
131 -> 133 ;
134 [label="36 <= 1.0\ngini = 0.571\nsamples = 7\nvalue = [0, 0, 0, 0, 0, 2, 0, 1, 0, 4]", fillcolor="#e5395866"] ;
126 -> 134 ;
135 [label="3 <= 6.0\ngini = 0.444\nsamples = 3\nvalue = [0, 0, 0, 0, 0, 2, 0, 1, 0, 0]", fillcolor="#399de57f"] ;
134 -> 135 ;
136 [label="gini = 0.0\nsamples = 1\nvalue = [0, 0, 0, 0, 0, 0, 0, 1, 0, 0]", fillcolor="#a339e5ff"] ;
135 -> 136 ;
137 [label="gini = 0.0\nsamples = 2\nvalue = [0, 0, 0, 0, 0, 2, 0, 0, 0, 0]", fillcolor="#399de5ff"] ;
135 -> 137 ;
138 [label="gini = 0.0\nsamples = 4\nvalue = [0, 0, 0, 0, 0, 0, 0, 0, 0, 4]", fillcolor="#e53958ff"] ;
134 -> 138 ;
139 [label="43 <= 2.5\ngini = 0.526\nsamples = 23\nvalue = [0, 3, 0, 0, 0, 0, 0, 1, 15, 4]", fillcolor="#e539c094"] ;
125 -> 139 ;
140 [label="59 <= 2.5\ngini = 0.594\nsamples = 8\nvalue = [0, 3, 0, 0, 0, 0, 0, 1, 0, 4]", fillcolor="#e5395833"] ;
139 -> 140 ;
141 [label="12 <= 14.5\ngini = 0.375\nsamples = 4\nvalue = [0, 3, 0, 0, 0, 0, 0, 1, 0, 0]", fillcolor="#e2e539aa"] ;
140 -> 141 ;
142 [label="gini = 0.0\nsamples = 3\nvalue = [0, 3, 0, 0, 0, 0, 0, 0, 0, 0]", fillcolor="#e2e539ff"] ;
141 -> 142 ;
143 [label="gini = 0.0\nsamples = 1\nvalue = [0, 0, 0, 0, 0, 0, 0, 1, 0, 0]", fillcolor="#a339e5ff"] ;
141 -> 143 ;
144 [label="gini = 0.0\nsamples = 4\nvalue = [0, 0, 0, 0, 0, 0, 0, 0, 0, 4]", fillcolor="#e53958ff"] ;
140 -> 144 ;
145 [label="gini = 0.0\nsamples = 15\nvalue = [0, 0, 0, 0, 0, 0, 0, 0, 15, 0]", fillcolor="#e539c0ff"] ;
139 -> 145 ;
146 [label="4 <= 0.5\ngini = 0.342\nsamples = 76\nvalue = [0, 8, 3, 2, 0, 1, 0, 0, 1, 61]", fillcolor="#e53958c7"] ;
124 -> 146 ;
147 [label="7 <= 9.0\ngini = 0.245\nsamples = 7\nvalue = [0, 6, 0, 0, 0, 0, 0, 0, 0, 1]", fillcolor="#e2e539d4"] ;
146 -> 147 ;
148 [label="gini = 0.0\nsamples = 6\nvalue = [0, 6, 0, 0, 0, 0, 0, 0, 0, 0]", fillcolor="#e2e539ff"] ;
147 -> 148 ;
149 [label="gini = 0.0\nsamples = 1\nvalue = [0, 0, 0, 0, 0, 0, 0, 0, 0, 1]", fillcolor="#e53958ff"] ;
147 -> 149 ;
150 [label="28 <= 0.5\ngini = 0.24\nsamples = 69\nvalue = [0, 2, 3, 2, 0, 1, 0, 0, 1, 60]", fillcolor="#e53958dc"] ;
146 -> 150 ;
151 [label="51 <= 1.5\ngini = 0.56\nsamples = 5\nvalue = [0, 1, 3, 1, 0, 0, 0, 0, 0, 0]", fillcolor="#7be5397f"] ;
150 -> 151 ;
152 [label="7 <= 4.0\ngini = 0.5\nsamples = 2\nvalue = [0, 1, 0, 1, 0, 0, 0, 0, 0, 0]", fillcolor="#e2e53900"] ;
151 -> 152 ;
153 [label="gini = 0.0\nsamples = 1\nvalue = [0, 0, 0, 1, 0, 0, 0, 0, 0, 0]", fillcolor="#39e55eff"] ;
152 -> 153 ;
154 [label="gini = 0.0\nsamples = 1\nvalue = [0, 1, 0, 0, 0, 0, 0, 0, 0, 0]", fillcolor="#e2e539ff"] ;
152 -> 154 ;
155 [label="gini = 0.0\nsamples = 3\nvalue = [0, 0, 3, 0, 0, 0, 0, 0, 0, 0]", fillcolor="#7be539ff"] ;
151 -> 155 ;
156 [label="22 <= 7.0\ngini = 0.12\nsamples = 64\nvalue = [0, 1, 0, 1, 0, 1, 0, 0, 1, 60]", fillcolor="#e53958ef"] ;
150 -> 156 ;
157 [label="50 <= 2.0\ngini = 0.5\nsamples = 2\nvalue = [0, 0, 0, 1, 0, 1, 0, 0, 0, 0]", fillcolor="#39e55e00"] ;
156 -> 157 ;
158 [label="gini = 0.0\nsamples = 1\nvalue = [0, 0, 0, 0, 0, 1, 0, 0, 0, 0]", fillcolor="#399de5ff"] ;
157 -> 158 ;
159 [label="gini = 0.0\nsamples = 1\nvalue = [0, 0, 0, 1, 0, 0, 0, 0, 0, 0]", fillcolor="#39e55eff"] ;
157 -> 159 ;
160 [label="29 <= 4.0\ngini = 0.063\nsamples = 62\nvalue = [0, 1, 0, 0, 0, 0, 0, 0, 1, 60]", fillcolor="#e53958f7"] ;
156 -> 160 ;
161 [label="gini = 0.0\nsamples = 1\nvalue = [0, 0, 0, 0, 0, 0, 0, 0, 1, 0]", fillcolor="#e539c0ff"] ;
160 -> 161 ;
162 [label="28 <= 2.0\ngini = 0.032\nsamples = 61\nvalue = [0, 1, 0, 0, 0, 0, 0, 0, 0, 60]", fillcolor="#e53958fb"] ;
160 -> 162 ;
163 [label="20 <= 7.5\ngini = 0.444\nsamples = 3\nvalue = [0, 1, 0, 0, 0, 0, 0, 0, 0, 2]", fillcolor="#e539587f"] ;
162 -> 163 ;
164 [label="gini = 0.0\nsamples = 2\nvalue = [0, 0, 0, 0, 0, 0, 0, 0, 0, 2]", fillcolor="#e53958ff"] ;
163 -> 164 ;
165 [label="gini = 0.0\nsamples = 1\nvalue = [0, 1, 0, 0, 0, 0, 0, 0, 0, 0]", fillcolor="#e2e539ff"] ;
163 -> 165 ;
166 [label="gini = 0.0\nsamples = 58\nvalue = [0, 0, 0, 0, 0, 0, 0, 0, 0, 58]", fillcolor="#e53958ff"] ;
162 -> 166 ;
167 [label="28 <= 10.5\ngini = 0.742\nsamples = 287\nvalue = [2, 61, 83, 14, 3, 0, 1, 14, 101, 8]", fillcolor="#e539c016"] ;
123 -> 167 ;
168 [label="27 <= 7.5\ngini = 0.594\nsamples = 126\nvalue = [1, 6, 77, 7, 2, 0, 0, 13, 15, 5]", fillcolor="#7be5398e"] ;
167 -> 168 ;
169 [label="39 <= 0.5\ngini = 0.383\nsamples = 97\nvalue = [0, 3, 75, 7, 0, 0, 0, 11, 0, 1]", fillcolor="#7be539be"] ;
168 -> 169 ;
170 [label="51 <= 0.5\ngini = 0.12\nsamples = 79\nvalue = [0, 3, 74, 2, 0, 0, 0, 0, 0, 0]", fillcolor="#7be539ee"] ;
169 -> 170 ;
171 [label="35 <= 0.5\ngini = 0.444\nsamples = 3\nvalue = [0, 2, 0, 1, 0, 0, 0, 0, 0, 0]", fillcolor="#e2e5397f"] ;
170 -> 171 ;
172 [label="gini = 0.0\nsamples = 2\nvalue = [0, 2, 0, 0, 0, 0, 0, 0, 0, 0]", fillcolor="#e2e539ff"] ;
171 -> 172 ;
173 [label="gini = 0.0\nsamples = 1\nvalue = [0, 0, 0, 1, 0, 0, 0, 0, 0, 0]", fillcolor="#39e55eff"] ;
171 -> 173 ;
174 [label="35 <= 8.5\ngini = 0.052\nsamples = 76\nvalue = [0, 1, 74, 1, 0, 0, 0, 0, 0, 0]", fillcolor="#7be539f8"] ;
170 -> 174 ;
175 [label="20 <= 13.5\ngini = 0.026\nsamples = 75\nvalue = [0, 1, 74, 0, 0, 0, 0, 0, 0, 0]", fillcolor="#7be539fc"] ;
174 -> 175 ;
176 [label="gini = 0.0\nsamples = 74\nvalue = [0, 0, 74, 0, 0, 0, 0, 0, 0, 0]", fillcolor="#7be539ff"] ;
175 -> 176 ;
177 [label="gini = 0.0\nsamples = 1\nvalue = [0, 1, 0, 0, 0, 0, 0, 0, 0, 0]", fillcolor="#e2e539ff"] ;
175 -> 177 ;
178 [label="gini = 0.0\nsamples = 1\nvalue = [0, 0, 0, 1, 0, 0, 0, 0, 0, 0]", fillcolor="#39e55eff"] ;
174 -> 178 ;
179 [label="54 <= 6.0\ngini = 0.543\nsamples = 18\nvalue = [0, 0, 1, 5, 0, 0, 0, 11, 0, 1]", fillcolor="#a339e576"] ;
169 -> 179 ;
180 [label="gini = 0.0\nsamples = 11\nvalue = [0, 0, 0, 0, 0, 0, 0, 11, 0, 0]", fillcolor="#a339e5ff"] ;
179 -> 180 ;
181 [label="37 <= 8.5\ngini = 0.449\nsamples = 7\nvalue = [0, 0, 1, 5, 0, 0, 0, 0, 0, 1]", fillcolor="#39e55eaa"] ;
179 -> 181 ;
182 [label="15 <= 0.5\ngini = 0.5\nsamples = 2\nvalue = [0, 0, 1, 0, 0, 0, 0, 0, 0, 1]", fillcolor="#7be53900"] ;
181 -> 182 ;
183 [label="gini = 0.0\nsamples = 1\nvalue = [0, 0, 1, 0, 0, 0, 0, 0, 0, 0]", fillcolor="#7be539ff"] ;
182 -> 183 ;
184 [label="gini = 0.0\nsamples = 1\nvalue = [0, 0, 0, 0, 0, 0, 0, 0, 0, 1]", fillcolor="#e53958ff"] ;
182 -> 184 ;
185 [label="gini = 0.0\nsamples = 5\nvalue = [0, 0, 0, 5, 0, 0, 0, 0, 0, 0]", fillcolor="#39e55eff"] ;
181 -> 185 ;
186 [label="47 <= 8.5\ngini = 0.687\nsamples = 29\nvalue = [1, 3, 2, 0, 2, 0, 0, 2, 15, 4]", fillcolor="#e539c070"] ;
168 -> 186 ;
187 [label="36 <= 12.0\ngini = 0.605\nsamples = 25\nvalue = [1, 3, 2, 0, 2, 0, 0, 2, 15, 0]", fillcolor="#e539c08b"] ;
186 -> 187 ;
188 [label="20 <= 14.0\ngini = 0.765\nsamples = 9\nvalue = [1, 3, 2, 0, 0, 0, 0, 2, 1, 0]", fillcolor="#e2e53924"] ;
187 -> 188 ;
189 [label="18 <= 7.5\ngini = 0.722\nsamples = 6\nvalue = [1, 0, 2, 0, 0, 0, 0, 2, 1, 0]", fillcolor="#7be53900"] ;
188 -> 189 ;
190 [label="29 <= 4.0\ngini = 0.625\nsamples = 4\nvalue = [1, 0, 0, 0, 0, 0, 0, 2, 1, 0]", fillcolor="#a339e555"] ;
189 -> 190 ;
191 [label="54 <= 10.0\ngini = 0.5\nsamples = 2\nvalue = [1, 0, 0, 0, 0, 0, 0, 0, 1, 0]", fillcolor="#e5813900"] ;
190 -> 191 ;
192 [label="gini = 0.0\nsamples = 1\nvalue = [1, 0, 0, 0, 0, 0, 0, 0, 0, 0]", fillcolor="#e58139ff"] ;
191 -> 192 ;
193 [label="gini = 0.0\nsamples = 1\nvalue = [0, 0, 0, 0, 0, 0, 0, 0, 1, 0]", fillcolor="#e539c0ff"] ;
191 -> 193 ;
194 [label="gini = 0.0\nsamples = 2\nvalue = [0, 0, 0, 0, 0, 0, 0, 2, 0, 0]", fillcolor="#a339e5ff"] ;
190 -> 194 ;
195 [label="gini = 0.0\nsamples = 2\nvalue = [0, 0, 2, 0, 0, 0, 0, 0, 0, 0]", fillcolor="#7be539ff"] ;
189 -> 195 ;
196 [label="gini = 0.0\nsamples = 3\nvalue = [0, 3, 0, 0, 0, 0, 0, 0, 0, 0]", fillcolor="#e2e539ff"] ;
188 -> 196 ;
197 [label="14 <= 1.0\ngini = 0.219\nsamples = 16\nvalue = [0, 0, 0, 0, 2, 0, 0, 0, 14, 0]", fillcolor="#e539c0db"] ;
187 -> 197 ;
198 [label="gini = 0.0\nsamples = 2\nvalue = [0, 0, 0, 0, 2, 0, 0, 0, 0, 0]", fillcolor="#39e5c5ff"] ;
197 -> 198 ;
199 [label="gini = 0.0\nsamples = 14\nvalue = [0, 0, 0, 0, 0, 0, 0, 0, 14, 0]", fillcolor="#e539c0ff"] ;
197 -> 199 ;
200 [label="gini = 0.0\nsamples = 4\nvalue = [0, 0, 0, 0, 0, 0, 0, 0, 0, 4]", fillcolor="#e53958ff"] ;
186 -> 200 ;
201 [label="21 <= 15.5\ngini = 0.594\nsamples = 161\nvalue = [1, 55, 6, 7, 1, 0, 1, 1, 86, 3]", fillcolor="#e539c04b"] ;
167 -> 201 ;
202 [label="19 <= 2.5\ngini = 0.277\nsamples = 92\nvalue = [1, 3, 1, 4, 0, 0, 1, 1, 78, 3]", fillcolor="#e539c0d6"] ;
201 -> 202 ;
203 [label="52 <= 8.0\ngini = 0.688\nsamples = 8\nvalue = [0, 1, 1, 4, 0, 0, 1, 0, 1, 0]", fillcolor="#39e55e6d"] ;
202 -> 203 ;
204 [label="gini = 0.0\nsamples = 4\nvalue = [0, 0, 0, 4, 0, 0, 0, 0, 0, 0]", fillcolor="#39e55eff"] ;
203 -> 204 ;
205 [label="39 <= 5.0\ngini = 0.75\nsamples = 4\nvalue = [0, 1, 1, 0, 0, 0, 1, 0, 1, 0]", fillcolor="#e2e53900"] ;
203 -> 205 ;
206 [label="3 <= 8.0\ngini = 0.667\nsamples = 3\nvalue = [0, 1, 1, 0, 0, 0, 0, 0, 1, 0]", fillcolor="#e2e53900"] ;
205 -> 206 ;
207 [label="35 <= 6.0\ngini = 0.5\nsamples = 2\nvalue = [0, 1, 0, 0, 0, 0, 0, 0, 1, 0]", fillcolor="#e2e53900"] ;
206 -> 207 ;
208 [label="gini = 0.0\nsamples = 1\nvalue = [0, 0, 0, 0, 0, 0, 0, 0, 1, 0]", fillcolor="#e539c0ff"] ;
207 -> 208 ;
209 [label="gini = 0.0\nsamples = 1\nvalue = [0, 1, 0, 0, 0, 0, 0, 0, 0, 0]", fillcolor="#e2e539ff"] ;
207 -> 209 ;
210 [label="gini = 0.0\nsamples = 1\nvalue = [0, 0, 1, 0, 0, 0, 0, 0, 0, 0]", fillcolor="#7be539ff"] ;
206 -> 210 ;
211 [label="gini = 0.0\nsamples = 1\nvalue = [0, 0, 0, 0, 0, 0, 1, 0, 0, 0]", fillcolor="#3c39e5ff"] ;
205 -> 211 ;
212 [label="31 <= 5.5\ngini = 0.158\nsamples = 84\nvalue = [1, 2, 0, 0, 0, 0, 0, 1, 77, 3]", fillcolor="#e539c0e9"] ;
202 -> 212 ;
213 [label="22 <= 2.5\ngini = 0.074\nsamples = 79\nvalue = [0, 2, 0, 0, 0, 0, 0, 0, 76, 1]", fillcolor="#e539c0f5"] ;
212 -> 213 ;
214 [label="61 <= 14.5\ngini = 0.444\nsamples = 3\nvalue = [0, 2, 0, 0, 0, 0, 0, 0, 1, 0]", fillcolor="#e2e5397f"] ;
213 -> 214 ;
215 [label="gini = 0.0\nsamples = 2\nvalue = [0, 2, 0, 0, 0, 0, 0, 0, 0, 0]", fillcolor="#e2e539ff"] ;
214 -> 215 ;
216 [label="gini = 0.0\nsamples = 1\nvalue = [0, 0, 0, 0, 0, 0, 0, 0, 1, 0]", fillcolor="#e539c0ff"] ;
214 -> 216 ;
217 [label="30 <= 15.5\ngini = 0.026\nsamples = 76\nvalue = [0, 0, 0, 0, 0, 0, 0, 0, 75, 1]", fillcolor="#e539c0fc"] ;
213 -> 217 ;
218 [label="gini = 0.0\nsamples = 72\nvalue = [0, 0, 0, 0, 0, 0, 0, 0, 72, 0]", fillcolor="#e539c0ff"] ;
217 -> 218 ;
219 [label="29 <= 10.5\ngini = 0.375\nsamples = 4\nvalue = [0, 0, 0, 0, 0, 0, 0, 0, 3, 1]", fillcolor="#e539c0aa"] ;
217 -> 219 ;
220 [label="gini = 0.0\nsamples = 1\nvalue = [0, 0, 0, 0, 0, 0, 0, 0, 0, 1]", fillcolor="#e53958ff"] ;
219 -> 220 ;
221 [label="gini = 0.0\nsamples = 3\nvalue = [0, 0, 0, 0, 0, 0, 0, 0, 3, 0]", fillcolor="#e539c0ff"] ;
219 -> 221 ;
222 [label="29 <= 14.5\ngini = 0.72\nsamples = 5\nvalue = [1, 0, 0, 0, 0, 0, 0, 1, 1, 2]", fillcolor="#e5395840"] ;
212 -> 222 ;
223 [label="20 <= 3.5\ngini = 0.667\nsamples = 3\nvalue = [1, 0, 0, 0, 0, 0, 0, 1, 1, 0]", fillcolor="#e5813900"] ;
222 -> 223 ;
224 [label="gini = 0.0\nsamples = 1\nvalue = [0, 0, 0, 0, 0, 0, 0, 1, 0, 0]", fillcolor="#a339e5ff"] ;
223 -> 224 ;
225 [label="35 <= 8.0\ngini = 0.5\nsamples = 2\nvalue = [1, 0, 0, 0, 0, 0, 0, 0, 1, 0]", fillcolor="#e5813900"] ;
223 -> 225 ;
226 [label="gini = 0.0\nsamples = 1\nvalue = [0, 0, 0, 0, 0, 0, 0, 0, 1, 0]", fillcolor="#e539c0ff"] ;
225 -> 226 ;
227 [label="gini = 0.0\nsamples = 1\nvalue = [1, 0, 0, 0, 0, 0, 0, 0, 0, 0]", fillcolor="#e58139ff"] ;
225 -> 227 ;
228 [label="gini = 0.0\nsamples = 2\nvalue = [0, 0, 0, 0, 0, 0, 0, 0, 0, 2]", fillcolor="#e53958ff"] ;
222 -> 228 ;
229 [label="11 <= 13.5\ngini = 0.411\nsamples = 69\nvalue = [0, 52, 5, 3, 1, 0, 0, 0, 8, 0]", fillcolor="#e2e539b8"] ;
201 -> 229 ;
230 [label="53 <= 9.0\ngini = 0.218\nsamples = 59\nvalue = [0, 52, 1, 1, 1, 0, 0, 0, 4, 0]", fillcolor="#e2e539df"] ;
229 -> 230 ;
231 [label="54 <= 11.5\ngini = 0.375\nsamples = 4\nvalue = [0, 0, 1, 0, 0, 0, 0, 0, 3, 0]", fillcolor="#e539c0aa"] ;
230 -> 231 ;
232 [label="gini = 0.0\nsamples = 1\nvalue = [0, 0, 1, 0, 0, 0, 0, 0, 0, 0]", fillcolor="#7be539ff"] ;
231 -> 232 ;
233 [label="gini = 0.0\nsamples = 3\nvalue = [0, 0, 0, 0, 0, 0, 0, 0, 3, 0]", fillcolor="#e539c0ff"] ;
231 -> 233 ;
234 [label="36 <= 5.0\ngini = 0.105\nsamples = 55\nvalue = [0, 52, 0, 1, 1, 0, 0, 0, 1, 0]", fillcolor="#e2e539f1"] ;
230 -> 234 ;
235 [label="gini = 0.0\nsamples = 1\nvalue = [0, 0, 0, 0, 1, 0, 0, 0, 0, 0]", fillcolor="#39e5c5ff"] ;
234 -> 235 ;
236 [label="29 <= 8.0\ngini = 0.072\nsamples = 54\nvalue = [0, 52, 0, 1, 0, 0, 0, 0, 1, 0]", fillcolor="#e2e539f5"] ;
234 -> 236 ;
237 [label="gini = 0.0\nsamples = 1\nvalue = [0, 0, 0, 0, 0, 0, 0, 0, 1, 0]", fillcolor="#e539c0ff"] ;
236 -> 237 ;
238 [label="20 <= 7.0\ngini = 0.037\nsamples = 53\nvalue = [0, 52, 0, 1, 0, 0, 0, 0, 0, 0]", fillcolor="#e2e539fa"] ;
236 -> 238 ;
239 [label="gini = 0.0\nsamples = 1\nvalue = [0, 0, 0, 1, 0, 0, 0, 0, 0, 0]", fillcolor="#39e55eff"] ;
238 -> 239 ;
240 [label="gini = 0.0\nsamples = 52\nvalue = [0, 52, 0, 0, 0, 0, 0, 0, 0, 0]", fillcolor="#e2e539ff"] ;
238 -> 240 ;
241 [label="61 <= 13.5\ngini = 0.64\nsamples = 10\nvalue = [0, 0, 4, 2, 0, 0, 0, 0, 4, 0]", fillcolor="#7be53900"] ;
229 -> 241 ;
242 [label="gini = 0.0\nsamples = 4\nvalue = [0, 0, 0, 0, 0, 0, 0, 0, 4, 0]", fillcolor="#e539c0ff"] ;
241 -> 242 ;
243 [label="28 <= 13.5\ngini = 0.444\nsamples = 6\nvalue = [0, 0, 4, 2, 0, 0, 0, 0, 0, 0]", fillcolor="#7be5397f"] ;
241 -> 243 ;
244 [label="gini = 0.0\nsamples = 4\nvalue = [0, 0, 4, 0, 0, 0, 0, 0, 0, 0]", fillcolor="#7be539ff"] ;
243 -> 244 ;
245 [label="gini = 0.0\nsamples = 2\nvalue = [0, 0, 0, 2, 0, 0, 0, 0, 0, 0]", fillcolor="#39e55eff"] ;
243 -> 245 ;
246 [label="14 <= 9.0\ngini = 0.385\nsamples = 105\nvalue = [1, 14, 1, 0, 81, 1, 1, 4, 2, 0]", fillcolor="#39e5c5bc"] ;
122 -> 246 ;
247 [label="11 <= 10.5\ngini = 0.093\nsamples = 83\nvalue = [0, 3, 0, 0, 79, 0, 1, 0, 0, 0]", fillcolor="#39e5c5f2"] ;
246 -> 247 ;
248 [label="35 <= 9.0\ngini = 0.025\nsamples = 80\nvalue = [0, 1, 0, 0, 79, 0, 0, 0, 0, 0]", fillcolor="#39e5c5fc"] ;
247 -> 248 ;
249 [label="gini = 0.0\nsamples = 1\nvalue = [0, 1, 0, 0, 0, 0, 0, 0, 0, 0]", fillcolor="#e2e539ff"] ;
248 -> 249 ;
250 [label="gini = 0.0\nsamples = 79\nvalue = [0, 0, 0, 0, 79, 0, 0, 0, 0, 0]", fillcolor="#39e5c5ff"] ;
248 -> 250 ;
251 [label="14 <= 2.0\ngini = 0.444\nsamples = 3\nvalue = [0, 2, 0, 0, 0, 0, 1, 0, 0, 0]", fillcolor="#e2e5397f"] ;
247 -> 251 ;
252 [label="gini = 0.0\nsamples = 1\nvalue = [0, 0, 0, 0, 0, 0, 1, 0, 0, 0]", fillcolor="#3c39e5ff"] ;
251 -> 252 ;
253 [label="gini = 0.0\nsamples = 2\nvalue = [0, 2, 0, 0, 0, 0, 0, 0, 0, 0]", fillcolor="#e2e539ff"] ;
251 -> 253 ;
254 [label="28 <= 11.5\ngini = 0.694\nsamples = 22\nvalue = [1, 11, 1, 0, 2, 1, 0, 4, 2, 0]", fillcolor="#e2e53963"] ;
246 -> 254 ;
255 [label="60 <= 10.5\ngini = 0.716\nsamples = 9\nvalue = [1, 0, 1, 0, 2, 0, 0, 4, 1, 0]", fillcolor="#a339e549"] ;
254 -> 255 ;
256 [label="38 <= 14.5\ngini = 0.72\nsamples = 5\nvalue = [1, 0, 1, 0, 2, 0, 0, 0, 1, 0]", fillcolor="#39e5c540"] ;
255 -> 256 ;
257 [label="42 <= 2.0\ngini = 0.667\nsamples = 3\nvalue = [1, 0, 1, 0, 0, 0, 0, 0, 1, 0]", fillcolor="#e5813900"] ;
256 -> 257 ;
258 [label="gini = 0.0\nsamples = 1\nvalue = [1, 0, 0, 0, 0, 0, 0, 0, 0, 0]", fillcolor="#e58139ff"] ;
257 -> 258 ;
259 [label="6 <= 12.0\ngini = 0.5\nsamples = 2\nvalue = [0, 0, 1, 0, 0, 0, 0, 0, 1, 0]", fillcolor="#7be53900"] ;
257 -> 259 ;
260 [label="gini = 0.0\nsamples = 1\nvalue = [0, 0, 0, 0, 0, 0, 0, 0, 1, 0]", fillcolor="#e539c0ff"] ;
259 -> 260 ;
261 [label="gini = 0.0\nsamples = 1\nvalue = [0, 0, 1, 0, 0, 0, 0, 0, 0, 0]", fillcolor="#7be539ff"] ;
259 -> 261 ;
262 [label="gini = 0.0\nsamples = 2\nvalue = [0, 0, 0, 0, 2, 0, 0, 0, 0, 0]", fillcolor="#39e5c5ff"] ;
256 -> 262 ;
263 [label="gini = 0.0\nsamples = 4\nvalue = [0, 0, 0, 0, 0, 0, 0, 4, 0, 0]", fillcolor="#a339e5ff"] ;
255 -> 263 ;
264 [label="60 <= 13.0\ngini = 0.272\nsamples = 13\nvalue = [0, 11, 0, 0, 0, 1, 0, 0, 1, 0]", fillcolor="#e2e539d4"] ;
254 -> 264 ;
265 [label="gini = 0.0\nsamples = 11\nvalue = [0, 11, 0, 0, 0, 0, 0, 0, 0, 0]", fillcolor="#e2e539ff"] ;
264 -> 265 ;
266 [label="37 <= 2.5\ngini = 0.5\nsamples = 2\nvalue = [0, 0, 0, 0, 0, 1, 0, 0, 1, 0]", fillcolor="#399de500"] ;
264 -> 266 ;
267 [label="gini = 0.0\nsamples = 1\nvalue = [0, 0, 0, 0, 0, 1, 0, 0, 0, 0]", fillcolor="#399de5ff"] ;
266 -> 267 ;
268 [label="gini = 0.0\nsamples = 1\nvalue = [0, 0, 0, 0, 0, 0, 0, 0, 1, 0]", fillcolor="#e539c0ff"] ;
266 -> 268 ;
}